Language model created by QuickLM on Mon Dec 20 03:46:15 EST 2021
Copyright (c) 1996-2010 Carnegie Mellon University and Alexander I. Rudnicky

The model is in standard ARPA format, designed by Doug Paul while he was at MITRE.

The code that was used to produce this language model is available in Open Source.
Please visit http://www.speech.cs.cmu.edu/tools/ for more information

The (fixed) discount mass is 0.5. The backoffs are computed using the ratio method.
This model based on a corpus of 34 sentences and 55 words

\data\
ngram 1=55
ngram 2=94
ngram 3=82

\1-grams:
-1.0126 </s> -0.3010
-1.0126 <s> -0.2566
-2.5441 BACK -0.2985
-2.2430 BAG -0.2566
-2.5441 BATH -0.2973
-2.5441 BED -0.2566
-2.5441 BEDROOM -0.2566
-2.2430 BRING -0.2960
-2.5441 CHAIR -0.2566
-2.5441 COLOR -0.2998
-2.5441 COME-WITH-ME -0.2566
-2.2430 DINING -0.2948
-2.5441 DO -0.2985
-2.2430 DOOR -0.2566
-2.5441 DOU -0.2985
-2.5441 FIND-BAG -0.2566
-2.5441 FIND-BOTTLE -0.2566
-2.5441 FIND-HANDBAG -0.2566
-2.5441 FIRE-HYDRANT -0.2566
-2.5441 FOLLOW-ME -0.2566
-2.2430 FOR -0.2807
-2.5441 FRONT -0.2985
-2.2430 GET -0.2960
-1.8451 GO -0.2948
-2.5441 GOOD-JOB -0.2566
-2.2430 GREEN -0.2960
-2.5441 GREEN-ONE -0.2566
-2.2430 HANDBAG -0.2566
-2.2430 HEAD -0.2985
-2.5441 HERE-YOU-ARE -0.2566
-1.6990 IS -0.2781
-2.2430 KITCHEN -0.2539
-2.5441 LIVING -0.2973
-1.9420 ME -0.2807
-2.5441 MIKE -0.2566
-2.5441 MY -0.2985
-2.2430 NAME -0.2469
-2.5441 NO -0.2566
-2.5441 ONE -0.2998
-2.2430 RED -0.2960
-2.5441 RED-ONE -0.2566
-2.0669 ROOM -0.2566
-2.5441 SOFA -0.2566
-2.5441 STOP-FOLLOW -0.2566
-2.2430 TABLE -0.2566
-2.5441 THANK-YOU -0.2566
-1.3399 THE -0.2807
-1.8451 THIS -0.2923
-1.8451 TO -0.2807
-2.2430 WANT -0.2566
-2.5441 WHAT -0.2923
-2.2430 WHICH -0.2985
-2.5441 YES -0.2566
-2.2430 YOU -0.2985
-2.5441 YOUR -0.2985

\2-grams:
-1.5315 <s> BRING 0.0000
-1.8325 <s> COME-WITH-ME 0.0000
-1.8325 <s> FIND-BAG 0.0000
-1.8325 <s> FIND-BOTTLE 0.0000
-1.8325 <s> FIND-HANDBAG 0.0000
-1.8325 <s> FIRE-HYDRANT 0.0000
-1.8325 <s> FOLLOW-ME 0.0000
-1.5315 <s> GET 0.0000
-1.1335 <s> GO 0.0000
-1.8325 <s> GOOD-JOB 0.0000
-1.8325 <s> GREEN-ONE 0.0000
-1.5315 <s> HEAD 0.0000
-1.8325 <s> HERE-YOU-ARE 0.0000
-1.8325 <s> MY 0.0000
-1.8325 <s> NO 0.0000
-1.8325 <s> RED-ONE 0.0000
-1.8325 <s> STOP-FOLLOW 0.0000
-1.8325 <s> THANK-YOU 0.0000
-1.1335 <s> THIS 0.0000
-1.8325 <s> WHAT 0.0000
-1.5315 <s> WHICH 0.0000
-1.8325 <s> YES 0.0000
-0.3010 BACK DOOR 0.0000
-0.3010 BAG </s> -0.3010
-0.3010 BATH ROOM 0.0000
-0.3010 BED </s> -0.3010
-0.3010 BEDROOM </s> -0.3010
-0.3010 BRING ME 0.0000
-0.3010 CHAIR </s> -0.3010
-0.3010 COLOR DOU 0.0000
-0.3010 COME-WITH-ME </s> -0.3010
-0.6021 DINING ROOM 0.0000
-0.6021 DINING TABLE 0.0000
-0.3010 DO YOU 0.0000
-0.3010 DOOR </s> -0.3010
-0.3010 DOU YOU 0.0000
-0.3010 FIND-BAG </s> -0.3010
-0.3010 FIND-BOTTLE </s> -0.3010
-0.3010 FIND-HANDBAG </s> -0.3010
-0.3010 FIRE-HYDRANT </s> -0.3010
-0.3010 FOLLOW-ME </s> -0.3010
-0.3010 FOR THE -0.2730
-0.3010 FRONT DOOR 0.0000
-0.3010 GET ME 0.0000
-0.3010 GO TO 0.0000
-0.3010 GOOD-JOB </s> -0.3010
-0.6021 GREEN BAG 0.0000
-0.6021 GREEN HANDBAG 0.0000
-0.3010 GREEN-ONE </s> -0.3010
-0.3010 HANDBAG </s> -0.3010
-0.3010 HEAD FOR 0.0000
-0.3010 HERE-YOU-ARE </s> -0.3010
-1.1461 IS MIKE 0.0000
-0.4472 IS THE -0.1938
-1.1461 IS YOUR 0.0000
-0.6021 KITCHEN </s> -0.3010
-0.6021 KITCHEN TABLE 0.0000
-0.3010 LIVING ROOM 0.0000
-0.3010 ME THE -0.2430
-0.3010 MIKE </s> -0.3010
-0.3010 MY NAME -0.1761
-0.6021 NAME </s> -0.3010
-0.6021 NAME IS -0.2688
-0.3010 NO </s> -0.3010
-0.3010 ONE DO 0.0000
-0.6021 RED BAG 0.0000
-0.6021 RED HANDBAG 0.0000
-0.3010 RED-ONE </s> -0.3010
-0.3010 ROOM </s> -0.3010
-0.3010 SOFA </s> -0.3010
-0.3010 STOP-FOLLOW </s> -0.3010
-0.3010 TABLE </s> -0.3010
-0.3010 THANK-YOU </s> -0.3010
-1.5051 THE BACK 0.0000
-1.5051 THE BATH 0.0000
-1.5051 THE BED 0.0000
-1.5051 THE BEDROOM 0.0000
-1.5051 THE CHAIR 0.0000
-1.2041 THE DINING 0.0000
-1.5051 THE FRONT 0.0000
-1.2041 THE GREEN 0.0000
-1.2041 THE KITCHEN 0.0000
-1.5051 THE LIVING 0.0000
-1.2041 THE RED 0.0000
-1.5051 THE SOFA 0.0000
-0.3010 THIS IS -0.1091
-0.3010 TO THE -0.1938
-0.3010 WANT </s> -0.3010
-0.3010 WHAT IS -0.2688
-0.6021 WHICH COLOR 0.0000
-0.6021 WHICH ONE 0.0000
-0.3010 YES </s> -0.3010
-0.3010 YOU WANT 0.0000
-0.3010 YOUR NAME -0.1761

\3-grams:
-0.3010 <s> BRING ME
-0.3010 <s> COME-WITH-ME </s>
-0.3010 <s> FIND-BAG </s>
-0.3010 <s> FIND-BOTTLE </s>
-0.3010 <s> FIND-HANDBAG </s>
-0.3010 <s> FIRE-HYDRANT </s>
-0.3010 <s> FOLLOW-ME </s>
-0.3010 <s> GET ME
-0.3010 <s> GO TO
-0.3010 <s> GOOD-JOB </s>
-0.3010 <s> GREEN-ONE </s>
-0.3010 <s> HEAD FOR
-0.3010 <s> HERE-YOU-ARE </s>
-0.3010 <s> MY NAME
-0.3010 <s> NO </s>
-0.3010 <s> RED-ONE </s>
-0.3010 <s> STOP-FOLLOW </s>
-0.3010 <s> THANK-YOU </s>
-0.3010 <s> THIS IS
-0.3010 <s> WHAT IS
-0.6021 <s> WHICH COLOR
-0.6021 <s> WHICH ONE
-0.3010 <s> YES </s>
-0.3010 BACK DOOR </s>
-0.3010 BATH ROOM </s>
-0.3010 BRING ME THE
-0.3010 COLOR DOU YOU
-0.3010 DINING ROOM </s>
-0.3010 DINING TABLE </s>
-0.3010 DO YOU WANT
-0.3010 DOU YOU WANT
-0.6021 FOR THE BACK
-0.6021 FOR THE FRONT
-0.3010 FRONT DOOR </s>
-0.3010 GET ME THE
-0.3010 GO TO THE
-0.3010 GREEN BAG </s>
-0.3010 GREEN HANDBAG </s>
-0.3010 HEAD FOR THE
-0.3010 IS MIKE </s>
-1.0000 IS THE BED
-1.0000 IS THE CHAIR
-1.0000 IS THE DINING
-1.0000 IS THE KITCHEN
-1.0000 IS THE SOFA
-0.3010 IS YOUR NAME
-0.3010 KITCHEN TABLE </s>
-0.3010 LIVING ROOM </s>
-0.6021 ME THE GREEN
-0.6021 ME THE RED
-0.3010 MY NAME IS
-0.3010 NAME IS MIKE
-0.3010 ONE DO YOU
-0.3010 RED BAG </s>
-0.3010 RED HANDBAG </s>
-0.3010 THE BACK DOOR
-0.3010 THE BATH ROOM
-0.3010 THE BED </s>
-0.3010 THE BEDROOM </s>
-0.3010 THE CHAIR </s>
-0.6021 THE DINING ROOM
-0.6021 THE DINING TABLE
-0.3010 THE FRONT DOOR
-0.6021 THE GREEN BAG
-0.6021 THE GREEN HANDBAG
-0.6021 THE KITCHEN </s>
-0.6021 THE KITCHEN TABLE
-0.3010 THE LIVING ROOM
-0.6021 THE RED BAG
-0.6021 THE RED HANDBAG
-0.3010 THE SOFA </s>
-0.3010 THIS IS THE
-1.0000 TO THE BATH
-1.0000 TO THE BEDROOM
-1.0000 TO THE DINING
-1.0000 TO THE KITCHEN
-1.0000 TO THE LIVING
-0.3010 WHAT IS YOUR
-0.3010 WHICH COLOR DOU
-0.3010 WHICH ONE DO
-0.3010 YOU WANT </s>
-0.3010 YOUR NAME </s>

\end\
